{"internalDocumentIDStore":{"internalIdToId":["b4696fdbb6d8a3d1dfc3e4c5d2f0b784","a53f0756e14052632e457a19a2bb875e"]},"index":{"indexes":{"id":{"type":"Radix","node":{"w":"","s":"","c":{"b":{"w":"b4696fdbb6d8a3d1dfc3e4c5d2f0b784","s":"b4696fdbb6d8a3d1dfc3e4c5d2f0b784","c":{},"d":[1],"e":true},"a":{"w":"a53f0756e14052632e457a19a2bb875e","s":"a53f0756e14052632e457a19a2bb875e","c":{},"d":[2],"e":true}},"d":[],"e":false},"isArray":false},"title":{"type":"Radix","node":{"w":"","s":"","c":{"c":{"w":"c","s":"c","c":{},"d":[1,2],"e":true}},"d":[],"e":false},"isArray":false},"path":{"type":"Radix","node":{"w":"","s":"","c":{"c":{"w":"c","s":"c","c":{},"d":[1,2],"e":true},"l":{"w":"learn_from_zeck","s":"learn_from_zeck","c":{},"d":[1,2],"e":true},"b":{"w":"base","s":"base","c":{},"d":[1,2],"e":true},"m":{"w":"md","s":"md","c":{},"d":[1,2],"e":true}},"d":[],"e":false},"isArray":false},"content":{"type":"Radix","node":{"w":"","s":"","c":{"0":{"w":"0","s":"0","c":{"1":{"w":"01","s":"1","c":{},"d":[1,2],"e":true},"6":{"w":"06","s":"6","c":{},"d":[1,2],"e":true},"7":{"w":"07","s":"7","c":{},"d":[1,2],"e":true}},"d":[1],"e":true},"1":{"w":"1","s":"1","c":{"0":{"w":"10","s":"0","c":{},"d":[1,2],"e":true},"1":{"w":"11","s":"1","c":{},"d":[1,2],"e":true},"5":{"w":"15","s":"5","c":{},"d":[1,2],"e":true}},"d":[1,2],"e":true},"2":{"w":"2","s":"2","c":{"0":{"w":"2025","s":"025","c":{},"d":[1,2],"e":true}},"d":[1,2],"e":true},"3":{"w":"3","s":"3","c":{"5":{"w":"35","s":"5","c":{},"d":[1,2],"e":true}},"d":[1,2],"e":true},"4":{"w":"4","s":"4","c":{"2":{"w":"42","s":"2","c":{},"d":[1],"e":true}},"d":[1,2],"e":true},"5":{"w":"5","s":"5","c":{"1":{"w":"51","s":"1","c":{},"d":[1,2],"e":true}},"d":[1,2],"e":true},"6":{"w":"6","s":"6","c":{},"d":[1],"e":true},"n":{"w":"note","s":"note","c":{},"d":[1,2],"e":true},"t":{"w":"title","s":"title","c":{},"d":[1,2],"e":true},"c":{"w":"c","s":"c","c":{"r":{"w":"created","s":"reated","c":{},"d":[1,2],"e":true},"o":{"w":"co","s":"o","c":{"n":{"w":"con","s":"n","c":{"t":{"w":"cont","s":"t","c":{"e":{"w":"content","s":"ent","c":{},"d":[1,2],"e":true},"'":{"w":"cont'd","s":"'d","c":{},"d":[2],"e":true}},"d":[],"e":false},"s":{"w":"const","s":"st","c":{},"d":[1,2],"e":true}},"d":[],"e":false},"u":{"w":"cout","s":"ut","c":{},"d":[1,2],"e":true}},"d":[],"e":false},"p":{"w":"cpp","s":"pp","c":{},"d":[1,2],"e":true},"l":{"w":"class","s":"lass","c":{},"d":[1],"e":true},"i":{"w":"cin","s":"in","c":{},"d":[1],"e":true},"h":{"w":"chaining","s":"haining","c":{},"d":[2],"e":true}},"d":[1,2],"e":true},"m":{"w":"m","s":"m","c":{"e":{"w":"metadata","s":"etadata","c":{},"d":[1,2],"e":true},"o":{"w":"modified","s":"odified","c":{},"d":[1,2],"e":true},"a":{"w":"main","s":"ain","c":{},"d":[1],"e":true},"y":{"w":"myclass","s":"yclass","c":{},"d":[1,2],"e":true}},"d":[],"e":false},"b":{"w":"b","s":"b","c":{"l":{"w":"block","s":"lock","c":{},"d":[1,2],"e":true},"u":{"w":"buffer","s":"uffer","c":{},"d":[1],"e":true}},"d":[],"e":false},"s":{"w":"s","s":"s","c":{"t":{"w":"st","s":"t","c":{"d":{"w":"std","s":"d","c":{},"d":[1,2],"e":true},"r":{"w":"stream","s":"ream","c":{"b":{"w":"streambuf","s":"buf","c":{},"d":[1],"e":true}},"d":[1],"e":true}},"d":[],"e":false},"o":{"w":"some_member","s":"ome_member","c":{},"d":[1,2],"e":true}},"d":[],"e":false},"i":{"w":"i","s":"i","c":{"n":{"w":"in","s":"n","c":{"c":{"w":"include","s":"clude","c":{},"d":[1],"e":true},"t":{"w":"int","s":"t","c":{},"d":[1],"e":true}},"d":[],"e":false},"o":{"w":"iostream","s":"ostream","c":{},"d":[1],"e":true}},"d":[1,2],"e":true},"h":{"w":"hello","s":"hello","c":{},"d":[1,2],"e":true},"w":{"w":"world","s":"world","c":{},"d":[1,2],"e":true},"e":{"w":"endl","s":"endl","c":{},"d":[1,2],"e":true},"r":{"w":"return","s":"return","c":{},"d":[1,2],"e":true},"o":{"w":"o","s":"o","c":{"s":{"w":"os","s":"s","c":{"t":{"w":"ostream","s":"tream","c":{},"d":[1,2],"e":true}},"d":[1,2],"e":true},"p":{"w":"operator","s":"perator","c":{},"d":[1,2],"e":true},"b":{"w":"obj","s":"bj","c":{},"d":[1,2],"e":true},"f":{"w":"ofstream","s":"fstream","c":{},"d":[1],"e":true}},"d":[1,2],"e":true},"-":{"w":"-","s":"-","c":{},"d":[1,2],"e":true},"p":{"w":"public","s":"public","c":{},"d":[1],"e":true},"v":{"w":"v","s":"v","c":{"a":{"w":"value","s":"alue","c":{},"d":[1],"e":true}},"d":[1],"e":true},"f":{"w":"flush","s":"flush","c":{},"d":[1],"e":true}},"d":[],"e":false},"isArray":false},"embeddingModel":{"type":"Radix","node":{"w":"","s":"","c":{"t":{"w":"text-embedding-v3","s":"text-embedding-v3","c":{},"d":[1,2],"e":true}},"d":[],"e":false},"isArray":false},"created_at":{"type":"AVL","node":{"root":{"k":1736914580763,"v":[1],"l":{"k":0,"v":[],"l":null,"r":null,"h":0},"r":{"k":1736914580764,"v":[2],"l":null,"r":null,"h":0},"h":1}},"isArray":false},"ctime":{"type":"AVL","node":{"root":{"k":0,"v":[],"l":null,"r":{"k":1736906811132,"v":[1,2],"l":null,"r":null,"h":0},"h":1}},"isArray":false},"mtime":{"type":"AVL","node":{"root":{"k":0,"v":[],"l":null,"r":{"k":1736910455156,"v":[1,2],"l":null,"r":null,"h":0},"h":1}},"isArray":false},"tags":{"type":"Radix","node":{"w":"","s":"","c":{},"d":[],"e":false},"isArray":true},"extension":{"type":"Radix","node":{"w":"","s":"","c":{"m":{"w":"md","s":"md","c":{},"d":[1,2],"e":true}},"d":[],"e":false},"isArray":false}},"vectorIndexes":{"embedding":{"size":1024,"vectors":{"b4696fdbb6d8a3d1dfc3e4c5d2f0b784":[1.0000000367892272,[-0.05274068936705589,0.057761840522289276,-0.09834018349647522,0.05560460686683655,0.00037774868542328477,-0.04251241683959961,0.021665340289473534,0.08323954045772552,0.013836062513291836,0.018541067838668823,-0.018131935968995094,-0.00856850203126669,0.04095028340816498,0.0014331203419715166,0.026742281392216682,-0.017546135932207108,0.02964339219033718,0.059063620865345,0.005709235556423664,-0.05117855593562126,-0.01735086925327778,0.0019817277789115906,0.003758890088647604,0.0885954350233078,0.037082135677337646,0.057650260627269745,-0.042884353548288345,-0.03658001869916916,-0.002174670109525323,-0.03808636590838432,0.06624200940132141,-0.002342041814699769,-0.005379141308367252,-0.0022525445092469454,-0.009079916402697563,0.007694450207054615,-0.01258077472448349,0.01138127688318491,-0.06865960359573364,0.009633172303438187,0.003449717303737998,-0.03213537111878395,0.013743078336119652,-0.0384954959154129,0.0035357277374714613,-0.023153088986873627,0.04511597752571106,-0.0862894207239151,0.032600291073322296,-0.008828858844935894,-0.08190056681632996,-0.027114219963550568,0.06769256293773651,-0.07174667716026306,0.004005298484116793,0.05311262607574463,-0.023766785860061646,-0.02744896337389946,-0.018113339319825172,0.029048291966319084,0.003817005082964897,-0.0006840156856924295,0.022111665457487106,0.04046676307916641,-0.005927748512476683,-0.006257842760533094,-0.0051048374734818935,0.007899015210568905,-0.0038960417732596397,0.005341947544366121,0.034571558237075806,0.017880879342556,0.011725319549441338,-0.03698915243148804,-0.02724439837038517,0.04333068057894707,0.042066093534231186,-0.03784460574388504,-0.009414659813046455,0.01717419922351837,0.039239369332790375,0.0021932669915258884,0.017713507637381554,0.051624879240989685,0.020010219886898994,0.04266119375824928,0.01984284818172455,0.02214885875582695,-0.0029429527930915356,-0.039983246475458145,-0.03856988251209259,-0.03148448094725609,0.003724020905792713,-0.02516154944896698,-0.021460775285959244,0.00449811527505517,0.010042303241789341,0.026667894795536995,0.02631455473601818,0.04846341162919998,0.045785464346408844,0.0584685243666172,-0.0029173821676522493,-0.04760795831680298,0.04671530798077583,0.017397360876202583,0.07632150501012802,-0.0006479842704720795,0.002640753984451294,-0.03897901624441147,0.022855538874864578,0.017332272604107857,-0.04920728877186775,-0.016876649111509323,-0.016458218917250633,-0.022093066945672035,-0.001998000079765916,0.006671622861176729,-0.016504712402820587,-0.01508205197751522,-0.0314100943505764,0.05843132734298706,0.044855620712041855,0.015212230384349823,0.004072711803019047,-0.023153088986873627,-0.0006543769268319011,0.03133570775389671,-0.01882002130150795,0.028713548555970192,-0.00027503009187057614,0.028248628601431847,-0.017276480793952942,0.003510157112032175,-0.052034009248018265,0.012971309013664722,0.021776920184493065,0.029792167246341705,-0.019322136417031288,-0.05489792674779892,0.04608301445841789,0.026760879904031754,-0.01755543425679207,0.0018213298171758652,-0.018773527815937996,-0.05062064900994301,0.013380439952015877,0.028192836791276932,0.013426931574940681,0.013371140696108341,0.018159832805395126,0.01232041884213686,0.0437026172876358,-0.01113021932542324,0.034255411475896835,-0.001284345518797636,-0.037268105894327164,0.00046637433115392923,0.04422333091497421,0.025812439620494843,0.012441297993063927,-0.009414659813046455,0.0419917069375515,0.0015853821532800794,0.03354873135685921,-0.04411174729466438,0.0014598533743992448,-0.01882931962609291,-0.04251241683959961,-0.021776920184493065,-0.008661487139761448,-0.02307870052754879,0.03663581237196922,-0.018634052947163582,-0.013882555067539215,0.042066093534231186,0.11835040897130966,0.0004230785125400871,0.014858889393508434,-0.04931886866688728,-0.07126316428184509,0.005518617574125528,-0.01828071102499962,-0.04240083694458008,-0.01450554933398962,0.025421904399991035,0.018792124465107918,-0.005518617574125528,-0.04254961013793945,0.03139149770140648,-0.007922261953353882,-0.014979769475758076,0.02973637729883194,0.0399460531771183,-0.02110743336379528,0.028527580201625824,-0.006271790247410536,0.012617968022823334,-0.004381884820759296,-0.0014482303522527218,-0.02036355994641781,0.007610764354467392,-0.009377465583384037,0.022502198815345764,-0.035910531878471375,-0.005216418765485287,-0.03890462592244148,-0.030963769182562828,0.002250219928100705,-0.0495048351585865,-0.016597695648670197,-0.016699979081749916,0.01850387454032898,0.02631455473601818,-0.008791664615273476,-0.042475223541259766,0.008591748774051666,-0.00816402118653059,0.0009728481527417898,-0.013287454843521118,0.01373378001153469,0.015481884591281414,-0.050174321979284286,-0.016262952238321304,-0.0056301988661289215,-0.015426093712449074,0.03942533954977989,0.018568962812423706,-0.001570272259414196,0.006862240843474865,-0.024585045874118805,0.030926575884222984,0.010228272527456284,-0.025403307750821114,0.004360963124781847,-0.029476020485162735,0.006834345404058695,0.011678826995193958,-0.014849591068923473,-0.03347434476017952,-0.0029429527930915356,-0.02101445011794567,-0.03483191505074501,-0.006011434365063906,-0.029066890478134155,-0.0019794031977653503,0.009158953092992306,0.028750743716955185,0.006750659551471472,-0.0007955968612805009,0.01851317286491394,-0.007810680661350489,-0.03574316203594208,0.05757587403059006,0.01507275365293026,0.031149737536907196,0.02079128846526146,0.003961130976676941,0.005281507968902588,-0.0016365235205739737,-0.00104549212846905,0.014961172826588154,-0.00616020942106843,0.007499183062463999,0.007378303445875645,-0.021144628524780273,-0.06605604290962219,-0.02153516188263893,0.010218973271548748,0.009307727217674255,-0.03088938258588314,0.00033096596598625183,0.02067970670759678,0.0010791989043354988,-0.017211392521858215,0.009093863889575005,-0.03983446955680847,-0.031540270894765854,0.056311286985874176,0.039239369332790375,0.043925780802965164,0.03901620954275131,0.034366995096206665,-0.007345758844166994,0.007461989298462868,0.001986376941204071,-0.007713046856224537,-0.06527497619390488,-0.03453436493873596,-0.029569005593657494,-0.030536040663719177,-0.011901989579200745,0.06869679689407349,-0.005434931721538305,-0.06125805154442787,-0.015481884591281414,0.044744040817022324,-0.14914681017398834,-0.01829000934958458,0.010070199146866798,0.016904544085264206,-0.018345801159739494,-0.015063455328345299,-0.07974332571029663,0.015175036154687405,-0.031242722645401955,0.03449717164039612,-0.05248033255338669,-0.05199681594967842,-0.055678993463516235,-0.05478634312748909,-0.007778136059641838,-0.006313633173704147,-0.0173694659024477,0.025235936045646667,0.01560276374220848,-0.0037728375755250454,-0.02006600983440876,-0.03771442919969559,0.034050848335027695,-0.056199707090854645,-0.00043353927321732044,0.013510617427527905,0.01829930767416954,0.04232645034790039,-0.036858972162008286,-0.011976377107203007,-0.0347389318048954,-0.006532146595418453,-0.010181779973208904,-0.000010724067578848917,0.011102324351668358,0.004254031460732222,-0.03126131743192673,0.008387182839214802,0.04638056457042694,-0.027913885191082954,0.02588682621717453,0.04827744513750076,0.026240166276693344,0.03693336248397827,0.0019294240046292543,0.004421403165906668,0.0382351391017437,-0.004632942378520966,0.008252356201410294,0.013185172341763973,-0.021237611770629883,0.014366072602570057,0.012366910465061665,-0.03369750827550888,-0.0372123122215271,-0.003247476415708661,0.03222835436463356,0.02203727699816227,-0.0434422604739666,0.03784460574388504,0.0019085025414824486,0.05169926583766937,0.011892691254615784,0.0020491413306444883,-0.023859769105911255,0.006090471055358648,0.022334827110171318,0.041322220116853714,0.016458218917250633,-0.05158768594264984,0.018568962812423706,0.005290806293487549,-0.003979727625846863,0.004265654366463423,-0.09707560390233994,-0.009856334887444973,0.02108883671462536,-0.020605318248271942,-0.009368167258799076,-0.1025058850646019,0.010748984292149544,-0.0062020523473620415,-0.02413872256875038,0.007169088814407587,-0.02339484728872776,0.0028220731765031815,0.019917234778404236,-0.02017759159207344,0.007187685929238796,0.18686123192310333,0.030443057417869568,0.007066806312650442,-0.019303539767861366,0.025607874616980553,-0.028118450194597244,-0.004765444900840521,-0.011632334440946579,-0.016969632357358932,-0.0411362498998642,0.06999857723712921,0.01758332923054695,-0.011474261991679668,-0.00874052383005619,0.05195962265133858,-0.004914219956845045,-0.053707726299762726,-0.005434931721538305,0.07397830486297607,-0.027616335079073906,0.019173361361026764,-0.019563894718885422,-0.0017527538584545255,-0.001058858586475253,-0.01653260737657547,-0.02162814699113369,0.0367845855653286,0.01252498384565115,-0.03369750827550888,-0.0022281361743807793,-0.013110784813761711,0.02702123485505581,0.023748187348246574,-0.0738295242190361,-0.053484562784433365,-0.052889466285705566,0.02452925592660904,-0.005834764335304499,0.007871120236814022,0.0031893611885607243,-0.0183922927826643,-0.01851317286491394,0.033939264714717865,-0.02162814699113369,-0.02121901512145996,-0.021274805068969727,-0.0020874973852187395,-0.00811287946999073,-0.013854659162461758,0.0302570890635252,0.013994135893881321,-0.014998366124927998,-0.025198742747306824,-0.008294198662042618,-0.030126910656690598,-0.04303313046693802,0.0027407119050621986,0.019712669774889946,0.031558867543935776,-0.0063322302885353565,-0.0009490209049545228,-0.00530475378036499,-0.03168904781341553,0.08323954045772552,-0.02486399933695793,0.004530659411102533,-0.033846281468868256,-0.07944577932357788,0.02296712063252926,0.0007124921539798379,0.017081214115023613,-0.0228741355240345,-0.001866659615188837,-0.016151372343301773,0.047682344913482666,0.00090310990344733,0.025328921154141426,-0.009163602255284786,-0.032916437834501266,0.026686491444706917,-0.002784879645332694,-0.03897901624441147,-0.012971309013664722,-0.02663070149719715,0.00503974873572588,-0.01841088943183422,-0.06386160850524902,0.022836942225694656,0.008559203706681728,-0.010767580941319466,-0.02423170581459999,-0.0428471602499485,-0.01008879579603672,0.0651261955499649,0.039350952953100204,-0.021460775285959244,0.011632334440946579,-0.028192836791276932,0.007164439652115107,0.011334785260260105,-0.025738051161170006,-0.03503648191690445,-0.026686491444706917,-0.0069505758583545685,0.03795618936419487,-0.04504159092903137,-0.03408804163336754,0.00644846074283123,0.009679664857685566,-0.0038565234281122684,-0.04876096174120903,0.017536837607622147,-0.015202932059764862,0.015779433771967888,-0.0012541256146505475,0.05039748549461365,0.006057926453649998,-0.010590910911560059,0.03875585272908211,0.021814115345478058,0.010423539206385612,-0.009651769883930683,0.023208878934383392,0.037082135677337646,-0.0218513086438179,-0.0020956334192305803,-0.033846281468868256,-0.03098236583173275,-0.06326651573181152,0.028843726962804794,-0.01482169609516859,-0.018345801159739494,-0.027430366724729538,0.019805654883384705,0.037565652281045914,-0.01569574885070324,0.04723602160811424,0.022130262106657028,-0.003593842964619398,0.01533310953527689,0.016355937346816063,-0.03366031497716904,-0.026054197922348976,0.02839740179479122,-0.01055371668189764,0.03397646173834801,0.03107535094022751,0.01372448168694973,-0.01487748697400093,0.030015328899025917,-0.025868229568004608,0.059323977679014206,-0.009800544008612633,-0.052666302770376205,-0.026965444907546043,-0.00008673690899740905,0.007610764354467392,-0.02962479554116726,0.00415639765560627,-0.030015328899025917,-0.020307769998908043,-0.014803099445998669,0.023766785860061646,0.040503956377506256,0.02038215659558773,-0.0405411496758461,0.005523266736418009,-0.043814197182655334,-0.017843686044216156,-0.011102324351668358,0.05612531676888466,-0.027988271787762642,-0.03366031497716904,0.017220690846443176,0.001998000079765916,-0.05396808311343193,-0.08881859481334686,-0.02162814699113369,-0.004932816606014967,0.0014552042121067643,0.03551999852061272,-0.015351706184446812,-0.007159790489822626,-0.022372020408511162,-0.03949972614645958,0.011623036116361618,-0.0016446596710011363,-0.009735455736517906,-0.005830115173012018,-0.014142910949885845,-0.020828481763601303,0.13828623294830322,-0.028118450194597244,-0.02140498347580433,0.06441951543092728,0.0044028060510754585,0.030387265607714653,0.023729590699076653,0.0075689214281737804,-0.03537122532725334,0.013529214076697826,0.0021490994840860367,0.00415639765560627,0.007336460519582033,-0.061704374849796295,-0.002947601955384016,0.04106186330318451,0.0002780811337288469,-0.030796397477388382,-0.01258077472448349,0.0083220936357975,-0.04463246092200279,-0.02058672159910202,0.00750848138704896,0.059733107686042786,-0.02058672159910202,0.018373696133494377,0.06096050143241882,0.009033423848450184,-0.06772975623607635,0.00868008378893137,0.001068738172762096,0.019619684666395187,-0.025012774392962456,0.004825884941965342,0.055976543575525284,-0.006546094082295895,0.03181922435760498,-0.04783111810684204,-0.034366995096206665,-0.017601925879716873,0.012655162252485752,0.004951413720846176,-0.01911756955087185,0.04210328683257103,-0.007903664372861385,0.031019559130072594,0.029401633888483047,0.017332272604107857,-0.01232041884213686,0.05207120254635811,-0.0031451936811208725,-0.037900395691394806,0.029029695317149162,0.021070240065455437,0.06806450337171555,0.006346177775412798,0.0038588480092585087,-0.03816075250506401,0.014793801121413708,0.035501401871442795,-0.015426093712449074,0.00862429291009903,-0.0076433089561760426,0.0033474345691502094,0.0605141781270504,0.0010286386823281646,0.007661905605345964,-0.02921566367149353,0.03362312167882919,-0.011520753614604473,-0.023060103878378868,-0.030108314007520676,0.01590031385421753,-0.05958433449268341,-0.03247011452913284,-0.0000791092897998169,-0.057427097111940384,0.009038073010742664,-0.03972288966178894,0.00972615648061037,0.0218513086438179,-0.015165737830102444,-0.0315774641931057,0.045785464346408844,0.001796921482309699,0.05586496368050575,0.0010728063061833382,-0.018038952723145485,0.0006334554636850953,-0.00642056530341506,-0.017090512439608574,-0.00046172511065378785,0.014003434218466282,-0.01747174747288227,0.00862429291009903,0.020623916760087013,-0.05586496368050575,-0.004637591540813446,-0.021907098591327667,0.012673758901655674,-0.020140398293733597,0.030963769182562828,0.03326977789402008,-0.026853863149881363,0.009358868934214115,0.006685570348054171,0.030089717358350754,-0.009986513294279575,0.023357653990387917,0.0038913926109671593,-0.016179267317056656,-0.06516338884830475,0.010674596764147282,-0.030201297253370285,0.022818345576524734,0.025087160989642143,-0.034683141857385635,-0.014059225097298622,0.001879445044323802,0.010302659124135971,-0.03178203105926514,-0.00805243942886591,0.028099853545427322,0.02079128846526146,-0.01003300491720438,0.033028021454811096,-0.06460548937320709,0.014858889393508434,-0.006494952831417322,0.04567388445138931,0.02317168563604355,-0.018885109573602676,0.007341109681874514,-0.00971685815602541,0.001128596835769713,0.012469193898141384,0.04042956978082657,-0.0185224711894989,0.0029336544685065746,0.00914035551249981,-0.004398156888782978,-0.006481005344539881,-0.0013308377237990499,-0.0014912355691194534,-0.015147141180932522,0.0012762093683704734,-0.031763434410095215,0.017722805961966515,0.04135941341519356,0.01756473258137703,-0.02296712063252926,-0.014961172826588154,-0.00032864135573618114,0.016718575730919838,-0.014393968507647514,-0.02205587364733219,-0.006801800802350044,-0.024715224280953407,0.006922680418938398,0.004839832428842783,0.034459978342056274,0.011725319549441338,-0.04786831513047218,0.02651911973953247,-0.027002638205885887,-0.05303823947906494,0.004265654366463423,0.019377926364541054,0.03127991408109665,-0.016504712402820587,0.008866052143275738,0.006620481610298157,-0.059100814163684845,0.009131057187914848,-0.017099810764193535,0.02715141326189041,0.033530134707689285,-0.005495371762663126,-0.032488711178302765,-0.0057324813678860664,-0.00836858619004488,-0.01789017766714096,-0.011604439467191696,0.007155141327530146,0.05166207253932953,0.013585004955530167,0.020716900005936623,0.06099769473075867,-0.05750148743391037,-0.04452087730169296,-0.039090596139431,0.0009147329838015139,0.008847455494105816,-0.008694031275808811,0.0011716020526364446,-0.0000033756748507585144,-0.007057507522404194,0.021795518696308136,-0.042363643646240234,-0.014886785298585892,-0.00507229333743453,-0.016355937346816063,0.027616335079073906,-0.10629963874816895,-0.00816402118653059,-0.009121758863329887,0.03451576828956604,-0.025217339396476746,-0.007210931740701199,0.010302659124135971,0.0044190785847604275,0.0028150994330644608,-0.022948523983359337,-0.0034752879291772842,-0.019935831427574158,-0.02973637729883194,-0.01904318295419216,-0.006522848270833492,0.0320051945745945,-0.025031371042132378,0.006150911096483469,0.015612062998116016,-0.05404246971011162,0.006634429097175598,-0.011623036116361618,0.026649298146367073,-0.015779433771967888,0.0070435600355267525,-0.009423958137631416,-0.03460875153541565,0.05605093017220497,-0.02235342375934124,-0.0019282617140561342,0.056720416992902756,-0.02744896337389946,0.019191958010196686,0.004330743569880724,0.016346639022231102,0.06237386167049408,0.012599371373653412,0.004960712045431137,0.008545256219804287,-0.004656188189983368,-0.03834672272205353,-0.004019245970994234,-0.00667627202346921,-0.038421109318733215,-0.013306052424013615,0.0005332067958079278,0.010386344976723194,-0.03048025071620941,-0.03206098452210426,0.007396900560706854,-0.001343623036518693,-0.006825047079473734,-0.001473800977692008,-0.032916437834501266,0.02919706702232361,0.0063880207017064095,-0.020196188241243362,-0.049430448561906815,-0.031558867543935776,0.01559346541762352,0.02642613649368286,0.009688963182270527,-0.032432921230793,0.006834345404058695,-0.04753357172012329,0.009396062232553959,-0.04359103739261627,0.029922345653176308,0.050992585718631744,-0.007499183062463999,0.02670508809387684,-0.00421218853443861,0.003082429291680455,0.009986513294279575,0.0078525235876441,0.03438559174537659,0.0019549946300685406,0.015984000638127327,0.025868229568004608,0.0013738429406657815,-0.008243057876825333,-0.003909989260137081,-0.04615740105509758,0.03777021914720535,0.04254961013793945,-0.009902827441692352,0.0002696544397622347,-0.0032660732977092266,0.025124356150627136,-0.049430448561906815,-0.014886785298585892,-0.0190338846296072,-0.006271790247410536,0.025868229568004608,0.026054197922348976,-0.04098747670650482,0.003863497404381633,0.013901151716709137,0.03897901624441147,-0.023060103878378868,-0.015732942149043083,-0.0014784502563998103,0.02276255376636982,-0.02108883671462536,0.017546135932207108,-0.0017062617698684335,0.013566408306360245,-0.006922680418938398,0.010814073495566845,0.01034915167838335,-0.03525964170694351,-0.014645026065409184,-0.031131140887737274,0.04604582116007805,-0.05136452242732048,0.001307591563090682,0.03652422875165939,0.011725319549441338,-0.02452925592660904,0.05129013583064079,-0.01347342412918806,-0.05582777038216591,-0.030796397477388382,-0.048203058540821075,0.013687287457287312,0.02826722525060177,0.016281548887491226,0.00639266986399889,0.04887254536151886,0.009605277329683304,-0.013566408306360245,-0.0553070567548275,-0.023227475583553314,0.026240166276693344,-0.007750240620225668,-0.028973905369639397,0.02421310916543007,0.05199681594967842,0.027002638205885887,0.024585045874118805,-0.014468356035649776,-0.013045696541666985,0.020047413185238838,-0.016913842409849167,0.0070900521241128445,-0.0628201887011528,0.024175915867090225,0.028862323611974716,-0.024771016091108322,-0.028955308720469475,0.05835694074630737,0.00444232439622283,-0.0035520000383257866,0.013966240920126438,0.013296754099428654,0.026240166276693344,-0.05281507596373558,0.048500604927539825,-0.011186010204255581,0.015361004509031773,0.06724624335765839,0.05497231334447861,0.001401738147251308,-0.022316230461001396,-0.020047413185238838,-0.06739501655101776,-0.011344083584845066,0.018773527815937996,0.037602849304676056,0.017016125842928886,0.02298571728169918,0.06828766316175461,0.013240963220596313,0.014524145983159542,0.038830239325761795,-0.03579895198345184,-0.00012589200923684984,-0.0680273100733757,0.030071120709180832,-0.005709235556423664,0.04731040820479393,0.02110743336379528,0.011464962735772133,-0.006081172730773687,0.06523777544498444,-0.012041465379297733,0.005239665042608976,-0.009642470628023148,-0.0015737591311335564,0.005727832205593586,-0.0022688168101012707,-0.027411770075559616,-0.02432469092309475,0.00036118587013334036,-0.004163371864706278,-0.022929925471544266,-0.021814115345478058,-0.005727832205593586,-0.025180146098136902,0.052963852882385254,-0.015416795387864113,0.009530889801681042,-0.024175915867090225,0.0015528376679867506,0.01924774795770645,0.035185255110263824,-0.05627409368753433,-0.030629025772213936,-0.010711790062487125,0.0070807537995278835,-0.037788815796375275,-0.013845360837876797,0.020196188241243362,-0.0020886596757918596,0.017750700935721397,-0.019396523013710976,0.06520058214664459,0.0195452980697155,0.006123015657067299,-0.023264668881893158,0.044744040817022324,0.041842930018901825,0.018373696133494377,-0.05430282652378082,-0.015193632803857327,0.015639957040548325,-0.015667853876948357,0.0061555602587759495,-0.03297223150730133,-0.004951413720846176,-0.07996649295091629,-0.02278115227818489,-0.009707559831440449,0.029271455481648445,-0.05013712868094444,-0.016281548887491226,-0.020735496655106544,0.007787434384226799,-0.007996649481356144,-0.03669160231947899,0.004288900643587112,0.015035560354590416,0.11358960717916489,-0.03953691944479942]],"a53f0756e14052632e457a19a2bb875e":[1.0000000407277163,[-0.05111289396882057,0.06474299728870392,-0.10222578793764114,0.06062401086091995,-0.004849172197282314,-0.058901526033878326,0.03950483724474907,0.09301423281431198,0.00014042004477232695,0.014706659130752087,-0.026792144402861595,0.005354684311896563,0.03697727620601654,0.012778223492205143,0.028009116649627686,0.006108271889388561,0.04635733738541603,0.021194064989686012,0.015361952595412731,-0.06433109939098358,-0.0056589278392493725,0.005228306166827679,0.0035526270512491465,0.09249000251293182,0.021175341680645943,0.04983975365757942,-0.02286038175225258,-0.033869314938783646,0.015296422876417637,-0.02514454908668995,0.05695436894893646,0.02636152133345604,-0.01738400012254715,-0.007704379502683878,-0.02276676893234253,-0.0026890437584370375,0.007231632247567177,0.007086531259119511,-0.07519025355577469,0.012263350188732147,0.0020314098801463842,-0.0018570550018921494,0.024620313197374344,-0.041040096431970596,0.01014768797904253,-0.02394629828631878,0.05395874008536339,-0.08560005575418472,0.020857056602835655,0.008294143714010715,-0.050700996071100235,-0.012881197966635227,0.061709925532341,-0.06122313812375069,0.01372371893376112,0.03823169693350792,-0.025724951177835464,-0.011561250314116478,-0.03330763429403305,0.014407096430659294,0.018900537863373756,-0.021830635145306587,0.002068855334073305,0.03300807252526283,-0.012085484340786934,0.023291004821658134,-0.01799248717725277,0.022429760545492172,-0.001950668403878808,0.03787596523761749,0.037501510232686996,0.028346125036478043,-0.007685656659305096,-0.01810482330620289,-0.016344891861081123,0.022429760545492172,0.04426039755344391,-0.05399618670344353,-0.016447868198156357,0.01497813779860735,0.04178900271654129,0.015970438718795776,0.005331280641257763,0.05616801604628563,-0.006609103176742792,0.05040143430233002,0.03570413589477539,0.038681041449308395,-0.009403461590409279,-0.038493812084198,-0.01574576646089554,-0.035423293709754944,0.001790355541743338,-0.018797563388943672,-0.02261698804795742,0.0033630600664764643,0.017355917021632195,0.014098172076046467,0.03370080888271332,0.05343450605869293,0.05687947943806648,0.03707088902592659,-0.010681284591555595,-0.0550072118639946,0.030574124306440353,0.010334914550185204,0.08088194578886032,0.003164131660014391,-0.006459321826696396,-0.026511304080486298,0.020838333293795586,0.029020141810178757,-0.04785514995455742,-0.01896606758236885,-0.03692111000418663,-0.015436843037605286,-0.0028552075382322073,0.010597032494843006,0.011037015356123447,-0.014678575098514557,-0.025650059804320335,0.028402293100953102,0.03682749718427658,0.02153107337653637,-0.015773851424455643,-0.02031409926712513,-0.021868081763386726,0.049465298652648926,-0.054445531219244,0.04411061480641365,0.013920306228101254,0.023272281512618065,-0.02037026733160019,0.024433087557554245,-0.07376732677221298,0.023234836757183075,0.02490115351974964,0.0237777940928936,-0.027990395203232765,-0.043511491268873215,0.037595126777887344,0.01599852368235588,-0.02276676893234253,-0.0028364849276840687,-0.029188646003603935,-0.07286863774061203,0.010606394149363041,0.01749633625149727,0.019789865240454674,-0.019069042056798935,0.0029020141810178757,0.03119197115302086,0.02370290271937847,-0.00392239959910512,0.037632569670677185,-0.0096234530210495,-0.04886617511510849,-0.006482725031673908,0.052910272032022476,0.023291004821658134,0.011224241927266121,-0.005672969855368137,0.011448914185166359,-0.017075076699256897,0.02286038175225258,-0.039916735142469406,-0.0047017307952046394,-0.022242534905672073,-0.025874732062220573,-0.0013059063348919153,-0.02381523884832859,-0.03186598792672157,0.0450093038380146,-0.02615557238459587,-0.013873499818146229,0.03553562983870506,0.09975439310073853,0.01749633625149727,0.013349264860153198,-0.05100055783987045,-0.06871220469474792,0.019490301609039307,0.004980230703949928,-0.06002488732337952,-0.02387140691280365,0.007287800312042236,-0.02383396215736866,-0.04624500125646591,-0.045945435762405396,0.03207193687558174,-0.02611812762916088,-0.022935273125767708,0.04789259657263756,0.055306773632764816,0.01070000696927309,0.014107533730566502,-0.011505082249641418,-0.013077786192297935,0.0006125824293121696,0.009464310482144356,-0.037576403468847275,0.00481172651052475,-0.03124813921749592,0.021063005551695824,-0.059051308780908585,-0.019471578299999237,-0.02746615931391716,-0.03924272209405899,0.011533166281878948,-0.0401039645075798,0.013592659495770931,-0.028046563267707825,0.03583519533276558,-0.004619819112122059,-0.02999372035264969,-0.04171411320567131,-0.03248383477330208,0.005598078947514296,-0.03130430728197098,-0.020594939589500427,0.02990010753273964,0.024676481261849403,-0.032839566469192505,0.004900659434497356,-0.007358009926974773,-0.0022701239213347435,0.034973952919244766,0.011935703456401825,-0.0034122068900614977,0.0031734928488731384,-0.028009116649627686,0.034093987196683884,-0.0035151815973222256,-0.020744720473885536,0.014875163324177265,-0.04025374352931976,0.019340520724654198,0.010877872817218304,-0.0033607196528464556,-0.047181133180856705,-0.013976474292576313,-0.042238347232341766,-0.009000924415886402,0.007905648089945316,-0.013162038289010525,-0.005153415258973837,-0.008720084093511105,0.03815680742263794,0.0010157049400731921,-0.029357150197029114,0.019827309995889664,-0.012647164985537529,-0.05414596572518349,0.0733179822564125,0.004338979255408049,0.019658805802464485,0.030499232932925224,0.004816407337784767,-0.0062112463638186455,-0.024639036506414413,-0.0076341694220900536,0.02261698804795742,0.00022394070401787758,0.01201059389859438,0.024096079170703888,-0.018778840079903603,-0.06238394230604172,-0.010241301730275154,0.024096079170703888,0.01367691159248352,-0.026604916900396347,-0.004891298245638609,0.0009648026898503304,0.00240352307446301,-0.010934040881693363,0.003164131660014391,-0.06309540569782257,-0.034112706780433655,0.059013862162828445,0.012497383169829845,0.021194064989686012,0.028102731332182884,0.047368358820676804,-0.013330542482435703,0.004732155241072178,-0.0033747616689652205,-0.01780526153743267,-0.08515071123838425,-0.04384849965572357,-0.05122523009777069,0.0021507670171558857,-0.023365894332528114,0.07204484194517136,-0.007765228394418955,-0.04403572529554367,-0.017889512702822685,0.040965206921100616,-0.15330123901367188,-0.03658410161733627,0.007891606539487839,0.0353858508169651,-0.018245244398713112,-0.0016382337780669332,-0.06313285231590271,0.003938782028853893,-0.06066145747900009,0.030480509623885155,-0.0428374744951725,-0.05141245573759079,-0.03954228386282921,-0.03435610234737396,-0.006117633078247309,-0.011963787488639355,-0.023028885945677757,0.015914270654320717,0.025350498035550117,0.004313235636800528,-0.01501558255404234,-0.009894932620227337,0.04317448288202286,-0.07358010113239288,-0.027054261416196823,-0.0037562360521405935,0.003267106367275119,0.023272281512618065,-0.03901804983615875,-0.0028435057029128075,-0.01567087695002556,-0.010447250679135323,-0.011196157895028591,0.014360289089381695,0.0057244570925831795,0.024358196184039116,-0.019995814189314842,0.03669643774628639,0.07440389692783356,-0.0064546409994363785,0.032727230340242386,0.021268954500555992,0.014425818808376789,0.042500466108322144,-0.004519185051321983,-0.008794975467026234,0.02501348964869976,-0.05358428880572319,0.025256885215640068,0.01656956411898136,-0.0072784386575222015,0.015605347231030464,-0.004329618066549301,-0.06792585551738739,-0.02842101640999317,-0.0021074707619845867,0.010746813379228115,0.04392338916659355,-0.03553562983870506,0.023010164499282837,-0.0020641745068132877,0.04021630063652992,-0.001557492301799357,0.0023929914459586143,-0.023459507152438164,0.00797117780894041,0.020763443782925606,0.02514454908668995,0.040029071271419525,-0.05021420493721962,0.01303097978234291,0.013227568008005619,-0.024245860055088997,0.001064266893081367,-0.0911419689655304,-0.015165364369750023,0.04905340075492859,-0.03570413589477539,-0.01070000696927309,-0.09967950731515884,-0.02407735586166382,-0.03375697880983353,-0.01492196973413229,0.02503221295773983,-0.019396688789129257,0.004877256229519844,0.015156002715229988,-0.013255652040243149,-0.005471700802445412,0.17554377019405365,0.013480324298143387,0.021793190389871597,-0.01555854082107544,0.02875802479684353,-0.01930307410657406,-0.031566426157951355,0.003763257060199976,-0.014519432559609413,-0.04182644933462143,0.05388385057449341,0.00413771066814661,0.0008852313621900976,-0.010587670840322971,0.044747184962034225,-0.003288169391453266,-0.0502890981733799,0.00020814345043618232,0.07885989546775818,-0.013573937118053436,0.022485928609967232,0.00511597003787756,-0.013658189214766026,0.007891606539487839,-0.016026606783270836,-0.019846031442284584,0.03192215412855148,0.01837630197405815,-0.02860824204981327,0.004732155241072178,0.008261378854513168,0.021755745634436607,0.04036607965826988,-0.03823169693350792,-0.02755977399647236,-0.04373616352677345,0.028009116649627686,0.017524421215057373,0.0200519822537899,-0.03083624131977558,-0.016354253515601158,-0.0040440973825752735,0.03379442170262337,-0.015053028240799904,-0.037370454519987106,-0.010381721891462803,-0.013957751914858818,0.012310156598687172,-0.01197314914315939,-0.0016171707538887858,0.017908236011862755,-0.0028715897351503372,-0.026829589158296585,-0.030742626637220383,-0.014912608079612255,-0.05980021506547928,0.008626471273601055,0.025912178680300713,0.018095461651682854,-0.011795283295214176,-0.0004563651164062321,0.016307447105646133,-0.039841845631599426,0.06496766954660416,-0.018151629716157913,0.018385663628578186,-0.02849590592086315,-0.036321982741355896,0.028870360925793648,0.0008647534414194524,0.00747502688318491,-0.024470532312989235,-0.0045051430352032185,-0.01850736141204834,0.037763629108667374,-0.009155387058854103,0.032633617520332336,0.017018908634781837,-0.03898060321807861,0.026642361655831337,0.009450268931686878,-0.015436843037605286,-0.004802365321666002,-0.018132908269762993,-0.007025682833045721,-0.014538154937326908,-0.09166619926691055,0.022148920223116875,-0.0016358934808522463,0.009679621085524559,-0.024582868441939354,-0.03096729889512062,-0.027915503829717636,0.04062819853425026,0.042388129979372025,-0.019377965480089188,0.018207797780632973,-0.03426248952746391,0.0039762272499501705,-0.03456205129623413,-0.00405579898506403,-0.025762395933270454,-0.03327018767595291,-0.0014276037691161036,0.037520233541727066,-0.040965206921100616,-0.028121452778577805,-0.004317916464060545,-0.011757837608456612,-0.0032624255400151014,-0.03789468854665756,0.018863091245293617,-0.00965153705328703,0.0031477492302656174,0.01658828742802143,0.031641315668821335,-0.011682947166264057,0.0018137588631361723,0.03126686066389084,0.009497075341641903,-0.002455010311678052,-0.02252337522804737,0.005630843807011843,0.03819425031542778,0.004542588256299496,-0.006674632430076599,-0.04197623208165169,-0.059126198291778564,-0.04508419334888458,0.027241487056016922,-0.019012873992323875,-0.00965153705328703,-0.0069695147685706615,0.01865714229643345,0.04751814156770706,-0.0011321365600451827,0.0550072118639946,0.008294143714010715,-0.029357150197029114,0.028364848345518112,0.011608056724071503,-0.019733697175979614,-0.02737254649400711,0.0325961709022522,-0.012731417082250118,0.000728428945876658,0.006398472934961319,0.0044185505248606205,0.013564575463533401,0.041002653539180756,-0.023459507152438164,0.035236068069934845,-0.005251709371805191,-0.047218579798936844,0.015390036627650261,0.01745889149606228,-0.0023227815981954336,-0.0275036059319973,-0.0012895240215584636,-0.040029071271419525,-0.018385663628578186,0.009127303026616573,0.0046432227827608585,0.02976904809474945,0.026754697784781456,-0.018760116770863533,0.010597032494843006,-0.04455995932221413,0.008135001175105572,-0.023197390139102936,0.027840612456202507,-0.04684412479400635,-0.045833099633455276,0.026960648596286774,0.008172445930540562,-0.02617429569363594,-0.06496766954660416,-0.011317855678498745,0.01620447263121605,0.005705734249204397,0.024208415299654007,-0.014388373121619225,-0.022972717881202698,-0.02254209667444229,-0.038830820471048355,0.028252512216567993,0.00784479919821024,-0.009052411653101444,-0.02973160333931446,-0.0190596804022789,-0.02287910506129265,0.13457857072353363,-0.018666503950953484,-0.024751372635364532,0.032633617520332336,-0.00628145644441247,0.027784444391727448,0.036321982741355896,0.003239022335037589,-0.05040143430233002,-0.0033654002472758293,0.0001029015620588325,0.019340520724654198,0.015904908999800682,-0.05335961654782295,0.007484388072043657,0.03720194846391678,-0.018732033669948578,-0.02366545796394348,0.005719776265323162,0.014519432559609413,-0.03128558397293091,-0.03428121283650398,-0.0038053831085562706,0.0787850022315979,-0.02877674624323845,0.042275793850421906,0.05152479186654091,0.018282689154148102,-0.061410363763570786,0.027672110125422478,-0.0006599741755053401,0.018310774117708206,-0.030536677688360214,-0.016541481018066406,0.0575534924864769,-0.01732783205807209,0.02042643539607525,-0.050513770431280136,-0.024751372635364532,-0.018919259309768677,-0.0006746012950316072,-0.00358539167791605,-0.021137896925210953,0.06534212827682495,0.0011139989364892244,0.049465298652648926,0.02403991110622883,0.0006336454534903169,-0.0011695818975567818,0.04422295093536377,-0.021699577569961548,-0.033981651067733765,0.029226090759038925,-0.0035830512642860413,0.06766373664140701,0.01666317880153656,-0.015932993963360786,-0.04864150285720825,0.030424341559410095,0.01622319594025612,-0.008481370285153389,0.0011924002319574356,-0.0006342304986901581,0.007044405210763216,0.06335752457380295,0.011439552530646324,-0.00016002033953554928,-0.01656956411898136,0.04429784044623375,-0.013152677565813065,-0.033775702118873596,-0.022074030712246895,0.015642791986465454,-0.03585391864180565,-0.025387942790985107,-0.0025650060269981623,-0.03961717337369919,0.01919073797762394,-0.033906757831573486,0.0011046376312151551,0.033026792109012604,-0.020782165229320526,-0.07118359953165054,0.041114985942840576,-0.0008009793236851692,0.06343241035938263,-0.011439552530646324,-0.00922559667378664,0.016429144889116287,-0.004858533386141062,-0.008687320165336132,-0.020482603460550308,0.011711031198501587,-0.008537538349628448,0.02020176313817501,0.019977090880274773,-0.06399409472942352,-0.0007459814660251141,-0.01920946128666401,0.014641129411756992,-0.03695855289697647,0.02265443280339241,0.03351358324289322,-0.049577634781599045,-0.01747761480510235,-0.0005160436267033219,0.011626779101788998,-0.008794975467026234,0.0032273204997181892,-0.0010186303406953812,-0.010980847291648388,-0.07507791370153427,-0.011748476885259151,-0.026848312467336655,0.016326170414686203,0.015549179166555405,-0.030686458572745323,0.001919073867611587,0.006089549046009779,0.014528793282806873,-0.030686458572745323,0.007680976297706366,0.024470532312989235,0.010035351850092411,0.01023194007575512,0.0308549627661705,-0.060137223452329636,0.019733697175979614,-0.013489685021340847,0.038681041449308395,0.04055330902338028,0.0017224858747795224,0.025462834164500237,0.022036584094166756,-0.017908236011862755,0.029544375836849213,0.04377360641956329,-0.04077798128128052,0.001207612338475883,-0.0047742812894284725,-0.005275113042443991,-0.01721549779176712,-0.026792144402861595,0.0275036059319973,-0.03298934921622276,-0.005775944329798222,-0.030386896803975105,0.037501510232686996,0.02606195956468582,0.0033607196528464556,-0.032970625907182693,-0.014716019853949547,0.004095584619790316,0.02609940432012081,-0.034000370651483536,-0.03890571370720863,0.0028926527593284845,-0.019490301609039307,0.00024968438083305955,0.02259826473891735,0.012862475588917732,-0.0011046376312151551,-0.06650292873382568,0.0022701239213347435,-0.022935273125767708,-0.020969392731785774,0.0369398333132267,0.014790911227464676,0.04766792431473732,-0.023141222074627876,0.017533782869577408,0.005939767695963383,-0.07608894258737564,0.01568959839642048,-0.01017577201128006,0.027185318991541862,0.05459531024098396,0.004671306814998388,-0.036303259432315826,-0.00032910946174524724,0.014060726389288902,-0.017721008509397507,-0.026492580771446228,0.016466589644551277,0.037389177829027176,0.024189691990613937,0.013096509501338005,0.05702925845980644,-0.05474509298801422,-0.016728706657886505,-0.034000370651483536,-0.008509454317390919,0.0016604670090600848,-0.011579972691833973,0.010100881569087505,-0.018058016896247864,-0.02286038175225258,0.01203867793083191,-0.02025793120265007,-0.022485928609967232,0.0006172630819492042,-0.02149362675845623,0.04998953267931938,-0.1100144237279892,0.012141652405261993,0.005733818281441927,0.04875383898615837,-0.009726428426802158,-0.008528176695108414,0.007353329565376043,0.022074030712246895,0.01486580166965723,-0.026848312467336655,-0.032877013087272644,-0.020800888538360596,-0.005153415258973837,-0.036340706050395966,0.003536244621500373,0.02963799051940441,-0.024114802479743958,0.030405620113015175,0.0029511612374335527,-0.04920318350195885,0.0009425695170648396,-0.018086101859807968,0.024302028119564056,-0.00872944574803114,0.03227788582444191,-0.015698960050940514,-0.049615081399679184,0.03469311073422432,-0.02606195956468582,-0.021100452169775963,0.036434318870306015,-0.031828541308641434,0.01666317880153656,0.011748476885259151,0.021718299016356468,0.054108522832393646,0.0019401368917897344,0.038681041449308395,0.013714357279241085,0.008298824541270733,-0.00959536898881197,0.007910328917205334,-0.012946727685630322,-0.03117324970662594,-0.03463694453239441,-0.0060989102348685265,0.004881936591118574,-0.037726182490587234,-0.018170353025197983,-0.01677551493048668,0.005579356104135513,0.009562605060636997,0.0031290266197174788,-0.0143415667116642,-0.006763565354049206,0.015801934525370598,-0.026998093351721764,-0.024882430210709572,-0.04171411320567131,0.01431348267942667,0.02128767780959606,0.014042004011571407,-0.03898060321807861,0.007067808881402016,-0.012665887363255024,0.015848742797970772,-0.0593508705496788,0.02272932417690754,0.037670016288757324,-0.006169120315462351,0.02499476633965969,0.0166070107370615,-0.022448483854532242,-0.000533596146851778,0.020707275718450546,0.024058634415268898,0.019883478060364723,0.004437273368239403,-0.018881814554333687,0.01745889149606228,-0.0023965020664036274,0.008266059681773186,-0.05347195267677307,0.030723905190825462,0.022111475467681885,-0.01501558255404234,0.023347172886133194,0.005766583140939474,0.01256291288882494,-0.03248383477330208,-0.009698344394564629,-0.003983248490840197,0.0070818508975207806,0.002286506351083517,0.014407096430659294,-0.034168876707553864,-0.009763873182237148,0.02501348964869976,0.04676923528313637,-0.020538771525025368,-0.019808586686849594,-0.00594912888482213,0.025387942790985107,-0.004247706383466721,0.012956089340150356,-0.010437889955937862,0.019846031442284584,0.006819733418524265,-0.012057401239871979,0.01201059389859438,-0.035048842430114746,-0.02976904809474945,-0.03673388436436653,0.06290818005800247,-0.03695855289697647,0.010381721891462803,0.03583519533276558,0.01902223564684391,-0.0032132784835994244,0.04909084737300873,-0.009492394514381886,-0.015848742797970772,-0.019902199506759644,-0.04309958964586258,0.014051365666091442,0.027615942060947418,0.026661084964871407,-0.009403461590409279,-0.0060801878571510315,-0.012225904501974583,-0.003994950093328953,-0.07163294404745102,-0.02031409926712513,0.0345807746052742,-0.015830019488930702,-0.03107963502407074,0.018685227259993553,0.04205112159252167,0.030068611726164818,0.030443064868450165,-0.00043442449532449245,-0.012122930027544498,0.022392315790057182,0.002438628114759922,0.01023194007575512,-0.07736208289861679,0.03435610234737396,0.05609312653541565,0.0003914208500646055,-0.0011491039767861366,0.03667771443724632,0.034000370651483536,0.008968159556388855,0.024339472874999046,0.023478230461478233,0.02272932417690754,-0.03789468854665756,0.023216113448143005,-0.005598078947514296,-0.019377965480089188,0.06433109939098358,0.021942971274256706,-0.012469299137592316,-0.01658828742802143,-0.0043272776529192924,-0.04796748608350754,-0.01486580166965723,0.034131430089473724,0.05369662493467331,0.005808709189295769,0.012459938414394855,0.044634848833084106,0.0008682638872414827,0.01253482885658741,0.032727230340242386,-0.0428374744951725,0.02394629828631878,-0.021793190389871597,0.0450093038380146,0.012768862769007683,0.03832530975341797,0.00813968200236559,0.007933732122182846,-0.015390036627650261,0.08342822641134262,-0.023216113448143005,-0.0038077235221862793,-0.00134803238324821,-0.0049334242939949036,-0.030293283984065056,0.004147071857005358,-0.026530025526881218,-0.008490731939673424,0.011879535391926765,-0.016709985211491585,-0.021942971274256706,-0.0012626101961359382,-0.020033258944749832,-0.0200519822537899,0.03622836992144585,0.0005727967363782227,0.007554598152637482,-0.015315146185457706,-0.00652953190729022,-0.010512780398130417,0.013002895750105381,-0.044747184962034225,-0.024227136746048927,-0.01616702787578106,0.024526700377464294,-0.00959536898881197,0.020594939589500427,0.015174726024270058,-0.019602637737989426,0.0007769908988848329,-0.01885373145341873,0.05365917831659317,0.03817552700638771,-0.0006055614212527871,-0.03332635760307312,0.023159945383667946,0.021737022325396538,0.013939029537141323,-0.04684412479400635,-0.014481986872851849,0.030330728739500046,-0.004797684494405985,-0.00845328625291586,-0.02276676893234253,-0.008879227563738823,-0.07608894258737564,-0.012188459746539593,-0.0018547147046774626,0.04568332061171532,-0.04163922369480133,-0.0034098667092621326,-0.007886925712227821,0.014781549572944641,0.011664224788546562,-0.019583914428949356,-0.011411468498408794,0.013302458450198174,0.132856085896492,-0.009211554192006588]]}}},"searchableProperties":["id","title","path","content","embedding","embeddingModel","created_at","ctime","mtime","tags","extension"],"searchablePropertiesWithTypes":{"id":"string","title":"string","path":"string","content":"string","embedding":"vector[1024]","embeddingModel":"string","created_at":"number","ctime":"number","mtime":"number","tags":"string[]","extension":"string"},"frequencies":{"id":{"1":{"b4696fdbb6d8a3d1dfc3e4c5d2f0b784":1},"2":{"a53f0756e14052632e457a19a2bb875e":1}},"title":{"1":{"c":1},"2":{"c":1}},"path":{"1":{"c":0.25,"learn_from_zeck":0.25,"base":0.25,"md":0.25},"2":{"c":0.25,"learn_from_zeck":0.25,"base":0.25,"md":0.25}},"content":{"1":{"0":0.017857142857142856,"1":0.017857142857142856,"2":0.017857142857142856,"3":0.017857142857142856,"4":0.017857142857142856,"5":0.017857142857142856,"6":0.017857142857142856,"10":0.017857142857142856,"11":0.017857142857142856,"15":0.017857142857142856,"35":0.017857142857142856,"42":0.017857142857142856,"51":0.017857142857142856,"2025":0.017857142857142856,"note":0.017857142857142856,"title":0.017857142857142856,"c":0.017857142857142856,"metadata":0.017857142857142856,"created":0.017857142857142856,"01":0.017857142857142856,"06":0.017857142857142856,"modified":0.017857142857142856,"07":0.017857142857142856,"block":0.017857142857142856,"content":0.017857142857142856,"std":0.017857142857142856,"cout":0.017857142857142856,"cpp":0.017857142857142856,"include":0.017857142857142856,"iostream":0.017857142857142856,"int":0.017857142857142856,"main":0.017857142857142856,"hello":0.017857142857142856,"world":0.017857142857142856,"endl":0.017857142857142856,"return":0.017857142857142856,"ostream":0.017857142857142856,"operator":0.017857142857142856,"os":0.017857142857142856,"const":0.017857142857142856,"myclass":0.017857142857142856,"obj":0.017857142857142856,"some_member":0.017857142857142856,"-":0.017857142857142856,"class":0.017857142857142856,"public":0.017857142857142856,"value":0.017857142857142856,"v":0.017857142857142856,"stream":0.017857142857142856,"cin":0.017857142857142856,"buffer":0.017857142857142856,"i":0.017857142857142856,"o":0.017857142857142856,"ofstream":0.017857142857142856,"flush":0.017857142857142856,"streambuf":0.017857142857142856},"2":{"1":0.024390243902439025,"2":0.024390243902439025,"3":0.024390243902439025,"4":0.024390243902439025,"5":0.024390243902439025,"10":0.024390243902439025,"11":0.024390243902439025,"15":0.024390243902439025,"35":0.024390243902439025,"51":0.024390243902439025,"2025":0.024390243902439025,"note":0.024390243902439025,"title":0.024390243902439025,"c":0.024390243902439025,"metadata":0.024390243902439025,"created":0.024390243902439025,"01":0.024390243902439025,"06":0.024390243902439025,"modified":0.024390243902439025,"07":0.024390243902439025,"block":0.024390243902439025,"content":0.024390243902439025,"cont'd":0.024390243902439025,"-":0.024390243902439025,"i":0.024390243902439025,"o":0.024390243902439025,"std":0.024390243902439025,"ostream":0.024390243902439025,"chaining":0.024390243902439025,"cpp":0.024390243902439025,"cout":0.024390243902439025,"hello":0.024390243902439025,"world":0.024390243902439025,"endl":0.024390243902439025,"operator":0.024390243902439025,"os":0.024390243902439025,"const":0.024390243902439025,"myclass":0.024390243902439025,"obj":0.024390243902439025,"some_member":0.024390243902439025,"return":0.024390243902439025}},"embeddingModel":{"1":{"text-embedding-v3":1},"2":{"text-embedding-v3":1}},"tags":{},"extension":{"1":{"md":1},"2":{"md":1}}},"tokenOccurrences":{"id":{"b4696fdbb6d8a3d1dfc3e4c5d2f0b784":1,"a53f0756e14052632e457a19a2bb875e":1},"title":{"c":2},"path":{"c":2,"learn_from_zeck":2,"base":2,"md":2},"content":{"0":1,"1":2,"2":2,"3":2,"4":2,"5":2,"6":1,"10":2,"11":2,"15":2,"35":2,"42":1,"51":2,"2025":2,"note":2,"title":2,"c":2,"metadata":2,"created":2,"01":2,"06":2,"modified":2,"07":2,"block":2,"content":2,"std":2,"cout":2,"cpp":2,"include":1,"iostream":1,"int":1,"main":1,"hello":2,"world":2,"endl":2,"return":2,"ostream":2,"operator":2,"os":2,"const":2,"myclass":2,"obj":2,"some_member":2,"-":2,"class":1,"public":1,"value":1,"v":1,"stream":1,"cin":1,"buffer":1,"i":2,"o":2,"ofstream":1,"flush":1,"streambuf":1,"cont'd":1,"chaining":1},"embeddingModel":{"text-embedding-v3":2},"tags":{},"extension":{"md":2}},"avgFieldLength":{"id":1,"title":1,"path":4,"content":48.5,"embeddingModel":1,"tags":0,"extension":1},"fieldLengths":{"id":{"1":1,"2":1},"title":{"1":1,"2":1},"path":{"1":4,"2":4},"content":{"1":56,"2":41},"embeddingModel":{"1":1,"2":1},"tags":{},"extension":{"1":1,"2":1}}},"docs":{"docs":{"1":{"title":"C++<<","path":"C++//learn_from_zeck/C++base/C++<<.md","embeddingModel":"text-embedding-v3","ctime":1736906811132,"mtime":1736910455156,"tags":[],"extension":"md","metadata":{"created":"2025/01/15 10:06:51","modified":"2025/01/15 11:07:35"},"id":"b4696fdbb6d8a3d1dfc3e4c5d2f0b784","content":"\n\nNOTE TITLE: [[C++<<]]\n\nMETADATA:{\"created\":\"2025/01/15 10:06:51\",\"modified\":\"2025/01/15 11:07:35\"}\n\nNOTE BLOCK CONTENT:\n\n### C++`<<`\n\nC++`<<`****`std::cout`\n\n#### 1. `<<`\n`<<``std::cout`\n```cpp\n#include <iostream>\nint main() {\n    std::cout << \"Hello, World!\" << std::endl;\n    return 0;\n}\n```\n`<<``\"Hello, World!\"``std::cout`\n\n#### 2. `<<`\n`<<``<<`\n```cpp\nstd::ostream& operator<<(std::ostream& os, const MyClass& obj) {\n    os << obj.some_member; // MyClasssome_member\n    return os;\n}\n```\n- `std::ostream&`\n- `const MyClass&`\n- `std::ostream&`\n\n\n```cpp\n#include <iostream>\nclass MyClass {\npublic:\n    int value;\n    MyClass(int v) : value(v) {}\n};\n\nstd::ostream& operator<<(std::ostream& os, const MyClass& obj) {\n    os << \"MyClass value: \" << obj.value;\n    return os;\n}\n\nint main() {\n    MyClass obj(42);\n    std::cout << obj << std::endl; // : MyClass value: 42\n    return 0;\n}\n```\n#### 3. \nC++**Stream** `std::cin``std::cout`\n\n- ****\n- ****\n\nBuffer\n\n#### 4. `<<`\n`<<`C++`std::cout << obj``std::ostream``MyClass``operator<<`\n\n\n```cpp\nstd::cout << obj;\n```\n\n```cpp\noperator<<(std::cout, obj);\n```\n`operator<<`\n\n#### 5. \n`operator<<``std::ostream&`\n```cpp\nstd::cout << \"Value: \" << 42 << std::endl;\n```\n\n```cpp\noperator<<(operator<<(operator<<(std::cout, \"Value: \"), 42), std::endl);\n```\n`operator<<``std::cout``operator<<`\n\n#### 6. \nI/O`std::cout``std::ofstream`\n\n- ****`std::flush``std::endl`\n- ****`std::streambuf`\n\n### \n- `<<`C++\n- C++\n- `<<`C++\n- I/O\n\nC++","embedding":null,"created_at":1736914580763,"nchars":2301},"2":{"title":"C++<<","path":"C++//learn_from_zeck/C++base/C++<<.md","embeddingModel":"text-embedding-v3","ctime":1736906811132,"mtime":1736910455156,"tags":[],"extension":"md","metadata":{"created":"2025/01/15 10:06:51","modified":"2025/01/15 11:07:35"},"id":"a53f0756e14052632e457a19a2bb875e","content":"\n\nNOTE TITLE: [[C++<<]]\n\nMETADATA:{\"created\":\"2025/01/15 10:06:51\",\"modified\":\"2025/01/15 11:07:35\"}\n\nNOTE BLOCK CONTENT:\n\n(cont'd) ### \n- `<<`C++\n- C++\n- `<<`C++\n- I/O\n\nC++\n### `std::ostream&`\n\nC++Chaining\n\n#### 1. \n****\n\n\n```cpp\nstd::cout << \"Hello, \" << \"World!\" << std::endl;\n```\n\n```cpp\nstd::cout << \"Hello, \";\nstd::cout << \"World!\";\nstd::cout << std::endl;\n```\n\n\n#### 2. `operator<<`\n`operator<<``std::ostream&``operator<<``<<`\n\n\n```cpp\nstd::ostream& operator<<(std::ostream& os, const MyClass& obj) {\n    os << obj.some_member;\n    return os;\n}\n```\n- `os`\n- `os`\n- `os`\n\n#### 3. \n\n```cpp\nstd::cout << \"Hello, \" << \"World!\" << std::endl;\n```\n\n```cpp\noperator<<(operator<<(operator<<(std::cout, \"Hello, \"), \"World!\"), std::endl);\n```\n\n1. `operator<<(std::cout, \"Hello, \")``\"Hello, \"``std::cout``std::cout`\n2. `operator<<(std::cout, \"World!\")``\"World!\"``std::cout``std::cout`\n3. `operator<<(std::cout, std::endl)``std::endl``std::cout``std::cout`\n\n`operator<<``std::cout``operator<<`\n\n#### 4. \n`operator<<``std::ostream``operator<<``std::ostream``std::cout`\n\n\n```cpp\nstd::ostream operator<<(std::ostream os, const MyClass& obj) {\n    os << obj.some_member;\n    return os;\n}\n```\n\n```cpp\nstd::cout << \"Hello, \" << \"World!\" << std::endl;\n```\n\n```cpp\noperator<<(operator<<(operator<<(std::cout, \"Hello, \"), \"World!\"), std::endl);\n```\n`operator<<``std::ostream``std::cout`\n\n#### 5. \n- **`std::ostream&`**`operator<<``std::ostream&`\n- ****\n- ****\n\nC++`<<`","embedding":null,"created_at":1736914580764,"nchars":2357}},"count":2},"sorting":{"language":"english","sortableProperties":["id","title","path","content","embeddingModel","created_at","ctime","mtime","extension"],"sortablePropertiesWithTypes":{"id":"string","title":"string","path":"string","content":"string","embeddingModel":"string","created_at":"number","ctime":"number","mtime":"number","extension":"string"},"sorts":{"id":{"docs":{"1":2,"2":0},"orderedDocs":[[2,"a53f0756e14052632e457a19a2bb875e"],[1,"b4696fdbb6d8a3d1dfc3e4c5d2f0b784"],[1,"b4696fdbb6d8a3d1dfc3e4c5d2f0b784"]],"type":"string"},"title":{"docs":{"1":1,"2":2},"orderedDocs":[[1,"C++<<"],[1,"C++<<"],[2,"C++<<"]],"type":"string"},"path":{"docs":{"1":1,"2":2},"orderedDocs":[[1,"C++//learn_from_zeck/C++base/C++<<.md"],[1,"C++//learn_from_zeck/C++base/C++<<.md"],[2,"C++//learn_from_zeck/C++base/C++<<.md"]],"type":"string"},"content":{"docs":{"1":2,"2":0},"orderedDocs":[[2,"\n\nNOTE TITLE: [[C++<<]]\n\nMETADATA:{\"created\":\"2025/01/15 10:06:51\",\"modified\":\"2025/01/15 11:07:35\"}\n\nNOTE BLOCK CONTENT:\n\n(cont'd) ### \n- `<<`C++\n- C++\n- `<<`C++\n- I/O\n\nC++\n### `std::ostream&`\n\nC++Chaining\n\n#### 1. \n****\n\n\n```cpp\nstd::cout << \"Hello, \" << \"World!\" << std::endl;\n```\n\n```cpp\nstd::cout << \"Hello, \";\nstd::cout << \"World!\";\nstd::cout << std::endl;\n```\n\n\n#### 2. `operator<<`\n`operator<<``std::ostream&``operator<<``<<`\n\n\n```cpp\nstd::ostream& operator<<(std::ostream& os, const MyClass& obj) {\n    os << obj.some_member;\n    return os;\n}\n```\n- `os`\n- `os`\n- `os`\n\n#### 3. \n\n```cpp\nstd::cout << \"Hello, \" << \"World!\" << std::endl;\n```\n\n```cpp\noperator<<(operator<<(operator<<(std::cout, \"Hello, \"), \"World!\"), std::endl);\n```\n\n1. `operator<<(std::cout, \"Hello, \")``\"Hello, \"``std::cout``std::cout`\n2. `operator<<(std::cout, \"World!\")``\"World!\"``std::cout``std::cout`\n3. `operator<<(std::cout, std::endl)``std::endl``std::cout``std::cout`\n\n`operator<<``std::cout``operator<<`\n\n#### 4. \n`operator<<``std::ostream``operator<<``std::ostream``std::cout`\n\n\n```cpp\nstd::ostream operator<<(std::ostream os, const MyClass& obj) {\n    os << obj.some_member;\n    return os;\n}\n```\n\n```cpp\nstd::cout << \"Hello, \" << \"World!\" << std::endl;\n```\n\n```cpp\noperator<<(operator<<(operator<<(std::cout, \"Hello, \"), \"World!\"), std::endl);\n```\n`operator<<``std::ostream``std::cout`\n\n#### 5. \n- **`std::ostream&`**`operator<<``std::ostream&`\n- ****\n- ****\n\nC++`<<`"],[1,"\n\nNOTE TITLE: [[C++<<]]\n\nMETADATA:{\"created\":\"2025/01/15 10:06:51\",\"modified\":\"2025/01/15 11:07:35\"}\n\nNOTE BLOCK CONTENT:\n\n### C++`<<`\n\nC++`<<`****`std::cout`\n\n#### 1. `<<`\n`<<``std::cout`\n```cpp\n#include <iostream>\nint main() {\n    std::cout << \"Hello, World!\" << std::endl;\n    return 0;\n}\n```\n`<<``\"Hello, World!\"``std::cout`\n\n#### 2. `<<`\n`<<``<<`\n```cpp\nstd::ostream& operator<<(std::ostream& os, const MyClass& obj) {\n    os << obj.some_member; // MyClasssome_member\n    return os;\n}\n```\n- `std::ostream&`\n- `const MyClass&`\n- `std::ostream&`\n\n\n```cpp\n#include <iostream>\nclass MyClass {\npublic:\n    int value;\n    MyClass(int v) : value(v) {}\n};\n\nstd::ostream& operator<<(std::ostream& os, const MyClass& obj) {\n    os << \"MyClass value: \" << obj.value;\n    return os;\n}\n\nint main() {\n    MyClass obj(42);\n    std::cout << obj << std::endl; // : MyClass value: 42\n    return 0;\n}\n```\n#### 3. \nC++**Stream** `std::cin``std::cout`\n\n- ****\n- ****\n\nBuffer\n\n#### 4. `<<`\n`<<`C++`std::cout << obj``std::ostream``MyClass``operator<<`\n\n\n```cpp\nstd::cout << obj;\n```\n\n```cpp\noperator<<(std::cout, obj);\n```\n`operator<<`\n\n#### 5. \n`operator<<``std::ostream&`\n```cpp\nstd::cout << \"Value: \" << 42 << std::endl;\n```\n\n```cpp\noperator<<(operator<<(operator<<(std::cout, \"Value: \"), 42), std::endl);\n```\n`operator<<``std::cout``operator<<`\n\n#### 6. \nI/O`std::cout``std::ofstream`\n\n- ****`std::flush``std::endl`\n- ****`std::streambuf`\n\n### \n- `<<`C++\n- C++\n- `<<`C++\n- I/O\n\nC++"],[1,"\n\nNOTE TITLE: [[C++<<]]\n\nMETADATA:{\"created\":\"2025/01/15 10:06:51\",\"modified\":\"2025/01/15 11:07:35\"}\n\nNOTE BLOCK CONTENT:\n\n### C++`<<`\n\nC++`<<`****`std::cout`\n\n#### 1. `<<`\n`<<``std::cout`\n```cpp\n#include <iostream>\nint main() {\n    std::cout << \"Hello, World!\" << std::endl;\n    return 0;\n}\n```\n`<<``\"Hello, World!\"``std::cout`\n\n#### 2. `<<`\n`<<``<<`\n```cpp\nstd::ostream& operator<<(std::ostream& os, const MyClass& obj) {\n    os << obj.some_member; // MyClasssome_member\n    return os;\n}\n```\n- `std::ostream&`\n- `const MyClass&`\n- `std::ostream&`\n\n\n```cpp\n#include <iostream>\nclass MyClass {\npublic:\n    int value;\n    MyClass(int v) : value(v) {}\n};\n\nstd::ostream& operator<<(std::ostream& os, const MyClass& obj) {\n    os << \"MyClass value: \" << obj.value;\n    return os;\n}\n\nint main() {\n    MyClass obj(42);\n    std::cout << obj << std::endl; // : MyClass value: 42\n    return 0;\n}\n```\n#### 3. \nC++**Stream** `std::cin``std::cout`\n\n- ****\n- ****\n\nBuffer\n\n#### 4. `<<`\n`<<`C++`std::cout << obj``std::ostream``MyClass``operator<<`\n\n\n```cpp\nstd::cout << obj;\n```\n\n```cpp\noperator<<(std::cout, obj);\n```\n`operator<<`\n\n#### 5. \n`operator<<``std::ostream&`\n```cpp\nstd::cout << \"Value: \" << 42 << std::endl;\n```\n\n```cpp\noperator<<(operator<<(operator<<(std::cout, \"Value: \"), 42), std::endl);\n```\n`operator<<``std::cout``operator<<`\n\n#### 6. \nI/O`std::cout``std::ofstream`\n\n- ****`std::flush``std::endl`\n- ****`std::streambuf`\n\n### \n- `<<`C++\n- C++\n- `<<`C++\n- I/O\n\nC++"]],"type":"string"},"embeddingModel":{"docs":{"1":1,"2":2},"orderedDocs":[[1,"text-embedding-v3"],[1,"text-embedding-v3"],[2,"text-embedding-v3"]],"type":"string"},"created_at":{"docs":{"1":1,"2":2},"orderedDocs":[[1,1736914579100],[1,1736914580763],[2,1736914580764]],"type":"number"},"ctime":{"docs":{"1":1,"2":2},"orderedDocs":[[1,1736906811132],[1,1736906811132],[2,1736906811132]],"type":"number"},"mtime":{"docs":{"1":1,"2":2},"orderedDocs":[[1,1736910455156],[1,1736910455156],[2,1736910455156]],"type":"number"},"extension":{"docs":{"1":1,"2":2},"orderedDocs":[[1,"md"],[1,"md"],[2,"md"]],"type":"string"}},"enabled":true,"isSorted":true},"language":"english","schema":{"id":"string","title":"string","path":"string","content":"string","embedding":"vector[1024]","embeddingModel":"string","created_at":"number","ctime":"number","mtime":"number","tags":"string[]","extension":"string"}}